Language model created by QuickLM on Wed May  8 05:41:34 EDT 2019
Copyright (c) 1996-2010 Carnegie Mellon University and Alexander I. Rudnicky

The model is in standard ARPA format, designed by Doug Paul while he was at MITRE.

The code that was used to produce this language model is available in Open Source.
Please visit http://www.speech.cs.cmu.edu/tools/ for more information

The (fixed) discount mass is 0.5. The backoffs are computed using the ratio method.
This model based on a corpus of 9 sentences and 33 words

\data\
ngram 1=33
ngram 2=41
ngram 3=38

\1-grams:
-1.1102 </s> -0.3010
-1.1102 <s> -0.2660
-2.0645 A -0.2973
-2.0645 AFTERNOON -0.2660
-2.0645 ARE -0.2973
-2.0645 AT -0.2973
-2.0645 AUTOMATION -0.2973
-2.0645 BASED -0.2973
-2.0645 BEAUTIFUL -0.2935
-2.0645 COLLEGE -0.2660
-2.0645 ENGINEERING -0.2973
-1.7634 GOOD -0.2897
-2.0645 HI -0.2973
-2.0645 HOME -0.2973
-1.7634 IS -0.2935
-2.0645 LANGUAGE -0.2973
-1.7634 LIGHT -0.2660
-2.0645 MAJOR -0.2973
-1.7634 MORNING -0.2660
-2.0645 NATURAL -0.2973
-2.0645 OFF -0.2935
-1.7634 ON -0.2897
-2.0645 OUR -0.2973
-2.0645 PROCESSING -0.2973
-2.0645 PROJECT -0.2660
-2.0645 PUNJAB -0.2973
-2.0645 SYSTEM -0.2660
-1.7634 THE -0.2935
-2.0645 THERE -0.2660
-1.7634 THIS -0.2935
-1.7634 TURN -0.2897
-1.7634 WE -0.2935
-2.0645 WORKED -0.2935

\2-grams:
-0.9542 <s> GOOD 0.0000
-1.2553 <s> HI 0.0000
-0.9542 <s> THIS 0.0000
-0.9542 <s> TURN 0.0000
-0.9542 <s> WE 0.0000
-0.3010 A BEAUTIFUL 0.0000
-0.3010 AFTERNOON </s> -0.3010
-0.3010 ARE AT 0.0000
-0.3010 AT PUNJAB 0.0000
-0.3010 AUTOMATION SYSTEM 0.0000
-0.3010 BASED HOME 0.0000
-0.3010 BEAUTIFUL MORNING 0.0000
-0.3010 COLLEGE </s> -0.3010
-0.3010 ENGINEERING COLLEGE 0.0000
-0.6021 GOOD AFTERNOON 0.0000
-0.6021 GOOD MORNING 0.0000
-0.3010 HI THERE 0.0000
-0.3010 HOME AUTOMATION 0.0000
-0.6021 IS A 0.0000
-0.6021 IS OUR 0.0000
-0.3010 LANGUAGE PROCESSING 0.0000
-0.3010 LIGHT </s> -0.3010
-0.3010 MAJOR PROJECT 0.0000
-0.3010 MORNING </s> -0.3010
-0.3010 NATURAL LANGUAGE 0.0000
-0.3010 OFF THE 0.0000
-0.6021 ON NATURAL 0.0000
-0.6021 ON THE 0.0000
-0.3010 OUR MAJOR 0.0000
-0.3010 PROCESSING BASED 0.0000
-0.3010 PROJECT </s> -0.3010
-0.3010 PUNJAB ENGINEERING 0.0000
-0.3010 SYSTEM </s> -0.3010
-0.3010 THE LIGHT 0.0000
-0.3010 THERE </s> -0.3010
-0.3010 THIS IS 0.0000
-0.6021 TURN OFF 0.0000
-0.6021 TURN ON -0.1761
-0.6021 WE ARE 0.0000
-0.6021 WE WORKED 0.0000
-0.3010 WORKED ON -0.1761

\3-grams:
-0.6021 <s> GOOD AFTERNOON
-0.6021 <s> GOOD MORNING
-0.3010 <s> HI THERE
-0.3010 <s> THIS IS
-0.6021 <s> TURN OFF
-0.6021 <s> TURN ON
-0.6021 <s> WE ARE
-0.6021 <s> WE WORKED
-0.3010 A BEAUTIFUL MORNING
-0.3010 ARE AT PUNJAB
-0.3010 AT PUNJAB ENGINEERING
-0.3010 AUTOMATION SYSTEM </s>
-0.3010 BASED HOME AUTOMATION
-0.3010 BEAUTIFUL MORNING </s>
-0.3010 ENGINEERING COLLEGE </s>
-0.3010 GOOD AFTERNOON </s>
-0.3010 GOOD MORNING </s>
-0.3010 HI THERE </s>
-0.3010 HOME AUTOMATION SYSTEM
-0.3010 IS A BEAUTIFUL
-0.3010 IS OUR MAJOR
-0.3010 LANGUAGE PROCESSING BASED
-0.3010 MAJOR PROJECT </s>
-0.3010 NATURAL LANGUAGE PROCESSING
-0.3010 OFF THE LIGHT
-0.3010 ON NATURAL LANGUAGE
-0.3010 ON THE LIGHT
-0.3010 OUR MAJOR PROJECT
-0.3010 PROCESSING BASED HOME
-0.3010 PUNJAB ENGINEERING COLLEGE
-0.3010 THE LIGHT </s>
-0.6021 THIS IS A
-0.6021 THIS IS OUR
-0.3010 TURN OFF THE
-0.3010 TURN ON THE
-0.3010 WE ARE AT
-0.3010 WE WORKED ON
-0.3010 WORKED ON NATURAL

\end\
