Language model created by QuickLM on Wed Mar 13 16:16:37 EDT 2019
Copyright (c) 1996-2010 Carnegie Mellon University and Alexander I. Rudnicky

The model is in standard ARPA format, designed by Doug Paul while he was at MITRE.

The code that was used to produce this language model is available in Open Source.
Please visit http://www.speech.cs.cmu.edu/tools/ for more information

The (fixed) discount mass is 0.5. The backoffs are computed using the ratio method.
This model based on a corpus of 13 sentences and 30 words

\data\
ngram 1=30
ngram 2=49
ngram 3=44

\1-grams:
-1.0383 </s> -0.3010
-1.0383 <s> -0.2457
-2.1523 AFTERNOON -0.2593
-1.8513 ARE -0.2949
-2.1523 BRIGHT -0.2593
-2.1523 COLLEGE -0.2593
-2.1523 ENGINEERING -0.2980
-2.1523 EVENING -0.2593
-2.1523 FINE -0.2918
-1.6752 GOOD -0.2491
-1.8513 HOW -0.2823
-1.5502 IS -0.2758
-1.8513 LIGHT -0.2593
-1.8513 MORNING -0.2560
-2.1523 NAME -0.2593
-2.1523 NIGHT -0.2593
-2.1523 OFF -0.2855
-2.1523 ON -0.2855
-2.1523 PUNJAB -0.2980
-2.1523 SEEMS -0.2980
-1.4533 THE -0.2823
-2.1523 THIS -0.2886
-1.6752 TODAY -0.2593
-1.8513 TURN -0.2949
-2.1523 VERY -0.2918
-2.1523 WE -0.2949
-1.8513 WEATHER -0.2791
-2.1523 WHAT -0.2886
-2.1523 YOU -0.2918
-2.1523 YOUR -0.2980

\2-grams:
-1.4150 <s> AFTERNOON 0.0000
-1.1139 <s> GOOD -0.1249
-1.1139 <s> HOW 0.0000
-1.4150 <s> NIGHT 0.0000
-1.1139 <s> THE -0.1461
-1.4150 <s> THIS 0.0000
-1.1139 <s> TURN 0.0000
-1.4150 <s> WE 0.0000
-1.4150 <s> WHAT 0.0000
-0.3010 AFTERNOON </s> -0.3010
-0.6021 ARE VERY 0.0000
-0.6021 ARE YOU 0.0000
-0.3010 BRIGHT </s> -0.3010
-0.3010 COLLEGE </s> -0.3010
-0.3010 ENGINEERING COLLEGE 0.0000
-0.3010 EVENING </s> -0.3010
-0.3010 FINE TODAY 0.0000
-0.7782 GOOD </s> -0.3010
-0.7782 GOOD EVENING 0.0000
-0.7782 GOOD MORNING -0.1761
-0.6021 HOW ARE -0.1761
-0.6021 HOW IS -0.2430
-0.9031 IS FINE 0.0000
-0.9031 IS PUNJAB 0.0000
-0.9031 IS THE -0.2041
-0.9031 IS YOUR 0.0000
-0.3010 LIGHT </s> -0.3010
-0.6021 MORNING </s> -0.3010
-0.6021 MORNING SEEMS 0.0000
-0.3010 NAME </s> -0.3010
-0.3010 NIGHT </s> -0.3010
-0.3010 OFF THE -0.2041
-0.3010 ON THE -0.2041
-0.3010 PUNJAB ENGINEERING 0.0000
-0.3010 SEEMS BRIGHT 0.0000
-0.6990 THE LIGHT 0.0000
-1.0000 THE MORNING -0.1761
-0.6990 THE WEATHER 0.0000
-0.3010 THIS IS -0.2430
-0.3010 TODAY </s> -0.3010
-0.6021 TURN OFF 0.0000
-0.6021 TURN ON 0.0000
-0.3010 VERY GOOD -0.2218
-0.3010 WE ARE -0.1761
-0.6021 WEATHER IS -0.2430
-0.6021 WEATHER TODAY 0.0000
-0.3010 WHAT IS -0.2430
-0.3010 YOU TODAY 0.0000
-0.3010 YOUR NAME 0.0000

\3-grams:
-0.3010 <s> AFTERNOON </s>
-0.6021 <s> GOOD EVENING
-0.6021 <s> GOOD MORNING
-0.6021 <s> HOW ARE
-0.6021 <s> HOW IS
-0.3010 <s> NIGHT </s>
-0.6021 <s> THE MORNING
-0.6021 <s> THE WEATHER
-0.3010 <s> THIS IS
-0.6021 <s> TURN OFF
-0.6021 <s> TURN ON
-0.3010 <s> WE ARE
-0.3010 <s> WHAT IS
-0.3010 ARE VERY GOOD
-0.3010 ARE YOU TODAY
-0.3010 ENGINEERING COLLEGE </s>
-0.3010 FINE TODAY </s>
-0.3010 GOOD EVENING </s>
-0.3010 GOOD MORNING </s>
-0.3010 HOW ARE YOU
-0.3010 HOW IS THE
-0.3010 IS FINE TODAY
-0.3010 IS PUNJAB ENGINEERING
-0.3010 IS THE WEATHER
-0.3010 IS YOUR NAME
-0.3010 MORNING SEEMS BRIGHT
-0.3010 OFF THE LIGHT
-0.3010 ON THE LIGHT
-0.3010 PUNJAB ENGINEERING COLLEGE
-0.3010 SEEMS BRIGHT </s>
-0.3010 THE LIGHT </s>
-0.3010 THE MORNING SEEMS
-0.6021 THE WEATHER IS
-0.6021 THE WEATHER TODAY
-0.3010 THIS IS PUNJAB
-0.3010 TURN OFF THE
-0.3010 TURN ON THE
-0.3010 VERY GOOD </s>
-0.3010 WE ARE VERY
-0.3010 WEATHER IS FINE
-0.3010 WEATHER TODAY </s>
-0.3010 WHAT IS YOUR
-0.3010 YOU TODAY </s>
-0.3010 YOUR NAME </s>

\end\
